{
  "input_nodes": 4,
  "hidden_nodes": 7,
  "output_nodes": 2,
  "weights_ih": {
    "rows": 7,
    "cols": 4,
    "data": [
      [
        -0.7244839460663819,
        -0.7290941920310495,
        -0.1818321103782837,
        -0.5510323912922699
      ],
      [
        -0.5838621517946594,
        0.2291444650401453,
        0.3370554875385411,
        0.27677945660940917
      ],
      [
        -0.22902493642950927,
        0.5352327229366853,
        0.5765535548347994,
        -0.5102165866736612
      ],
      [
        0.6718926295845107,
        0.7504521739870433,
        -0.6377767608607872,
        -0.041996354481949716
      ],
      [
        0.4223470610558959,
        0.8407783789360201,
        -0.9824351707451933,
        -0.385227535183815
      ],
      [
        -0.81158945920206,
        0.856223652677834,
        -0.6906320243578757,
        -0.19169744747629988
      ],
      [
        -0.9080094988986592,
        0.5876858475765633,
        -0.3994078292168709,
        -0.8962146694808294
      ]
    ]
  },
  "weights_ho": {
    "rows": 2,
    "cols": 7,
    "data": [
      [
        0.43465012008155973,
        -0.7632859280581445,
        1.0821896356389646,
        0.062354703807553966,
        0.00835286850701461,
        0.03266626072225909,
        -0.8809434986029128
      ],
      [
        -0.7947966373161265,
        0.2976921610965462,
        -0.7259357762090181,
        0.5627118129008124,
        0.7629217213649283,
        -0.00861415108446717,
        0.7971952678508958
      ]
    ]
  },
  "bias_h": {
    "rows": 7,
    "cols": 1,
    "data": [
      [
        0.941494134281422
      ],
      [
        -0.7642307093502342
      ],
      [
        0.06419703140493184
      ],
      [
        -0.34716473777562373
      ],
      [
        -0.628897546603717
      ],
      [
        0.2562719792598462
      ],
      [
        0.11060991678371696
      ]
    ]
  },
  "bias_o": {
    "rows": 2,
    "cols": 1,
    "data": [
      [
        -0.5485084999842915
      ],
      [
        -0.4204797926534162
      ]
    ]
  },
  "learning_rate": 0.1,
  "activation_function": {}
}
